Language model created by QuickLM on Sun Dec 15 13:15:07 EST 2013
Copyright (c) 1996-2010 Carnegie Mellon University and Alexander I. Rudnicky

The model is in standard ARPA format, designed by Doug Paul while he was at MITRE.

The code that was used to produce this language model is available in Open Source.
Please visit http://www.speech.cs.cmu.edu/tools/ for more information

The (fixed) discount mass is 0.5. The backoffs are computed using the ratio method.
This model based on a corpus of 20 sentences and 17 words

\data\
ngram 1=17
ngram 2=26
ngram 3=34

\1-grams:
-2.0792 0 -0.2632
-2.0792 1 -0.2632
-2.0792 2 -0.2632
-2.0792 3 -0.2632
-2.0792 4 -0.2632
-2.0792 5 -0.2632
-2.0792 6 -0.2632
-2.0792 7 -0.2632
-2.0792 8 -0.2632
-2.0792 9 -0.2632
-1.0792 </s> -0.3010
-1.0792 <s> -0.2632
-1.3802 GO -0.2825
-1.3802 IS -0.2632
-1.0792 LANDMARK -0.2632
-1.3802 THIS -0.2825
-1.3802 TO -0.2632

\2-grams:
-0.3010 0 </s> -0.3010
-0.3010 1 </s> -0.3010
-0.3010 2 </s> -0.3010
-0.3010 3 </s> -0.3010
-0.3010 4 </s> -0.3010
-0.3010 5 </s> -0.3010
-0.3010 6 </s> -0.3010
-0.3010 7 </s> -0.3010
-0.3010 8 </s> -0.3010
-0.3010 9 </s> -0.3010
-0.6021 <s> GO 0.0000
-0.6021 <s> THIS 0.0000
-0.3010 GO TO 0.0000
-0.3010 IS LANDMARK 0.0000
-1.3010 LANDMARK 0 0.0000
-1.3010 LANDMARK 1 0.0000
-1.3010 LANDMARK 2 0.0000
-1.3010 LANDMARK 3 0.0000
-1.3010 LANDMARK 4 0.0000
-1.3010 LANDMARK 5 0.0000
-1.3010 LANDMARK 6 0.0000
-1.3010 LANDMARK 7 0.0000
-1.3010 LANDMARK 8 0.0000
-1.3010 LANDMARK 9 0.0000
-0.3010 THIS IS 0.0000
-0.3010 TO LANDMARK 0.0000

\3-grams:
-0.3010 <s> GO TO
-0.3010 <s> THIS IS
-0.3010 GO TO LANDMARK
-1.3010 IS LANDMARK 0
-1.3010 IS LANDMARK 1
-1.3010 IS LANDMARK 2
-1.3010 IS LANDMARK 3
-1.3010 IS LANDMARK 4
-1.3010 IS LANDMARK 5
-1.3010 IS LANDMARK 6
-1.3010 IS LANDMARK 7
-1.3010 IS LANDMARK 8
-1.3010 IS LANDMARK 9
-0.3010 LANDMARK 0 </s>
-0.3010 LANDMARK 1 </s>
-0.3010 LANDMARK 2 </s>
-0.3010 LANDMARK 3 </s>
-0.3010 LANDMARK 4 </s>
-0.3010 LANDMARK 5 </s>
-0.3010 LANDMARK 6 </s>
-0.3010 LANDMARK 7 </s>
-0.3010 LANDMARK 8 </s>
-0.3010 LANDMARK 9 </s>
-0.3010 THIS IS LANDMARK
-1.3010 TO LANDMARK 0
-1.3010 TO LANDMARK 1
-1.3010 TO LANDMARK 2
-1.3010 TO LANDMARK 3
-1.3010 TO LANDMARK 4
-1.3010 TO LANDMARK 5
-1.3010 TO LANDMARK 6
-1.3010 TO LANDMARK 7
-1.3010 TO LANDMARK 8
-1.3010 TO LANDMARK 9

\end\
